digraph Tree {
node [shape=box] ;
0 [label="Income <= 104.5\ngini = 0.167\nsamples = 3500\nvalue = [3178, 322]"] ;
1 [label="CCAvg <= 2.95\ngini = 0.027\nsamples = 2723\nvalue = [2686, 37]"] ;
0 -> 1 [labeldistance=2.5, labelangle=45, headlabel="True"] ;
2 [label="gini = 0.0\nsamples = 2546\nvalue = [2546, 0]"] ;
1 -> 2 ;
3 [label="Income <= 92.5\ngini = 0.331\nsamples = 177\nvalue = [140, 37]"] ;
1 -> 3 ;
4 [label="CD Account <= 0.5\ngini = 0.203\nsamples = 131\nvalue = [116, 15]"] ;
3 -> 4 ;
5 [label="CCAvg <= 3.65\ngini = 0.171\nsamples = 127\nvalue = [115, 12]"] ;
4 -> 5 ;
6 [label="Mortgage <= 216.5\ngini = 0.251\nsamples = 68\nvalue = [58, 10]"] ;
5 -> 6 ;
7 [label="Income <= 82.5\ngini = 0.216\nsamples = 65\nvalue = [57, 8]"] ;
6 -> 7 ;
8 [label="Age <= 32.5\ngini = 0.117\nsamples = 48\nvalue = [45, 3]"] ;
7 -> 8 ;
9 [label="gini = 0.0\nsamples = 1\nvalue = [0, 1]"] ;
8 -> 9 ;
10 [label="Age <= 36.5\ngini = 0.081\nsamples = 47\nvalue = [45, 2]"] ;
8 -> 10 ;
11 [label="Income <= 71.0\ngini = 0.32\nsamples = 5\nvalue = [4, 1]"] ;
10 -> 11 ;
12 [label="gini = 0.0\nsamples = 1\nvalue = [0, 1]"] ;
11 -> 12 ;
13 [label="gini = 0.0\nsamples = 4\nvalue = [4, 0]"] ;
11 -> 13 ;
14 [label="Education <= 1.5\ngini = 0.046\nsamples = 42\nvalue = [41, 1]"] ;
10 -> 14 ;
15 [label="Age <= 43.5\ngini = 0.142\nsamples = 13\nvalue = [12, 1]"] ;
14 -> 15 ;
16 [label="gini = 0.0\nsamples = 12\nvalue = [12, 0]"] ;
15 -> 16 ;
17 [label="gini = 0.0\nsamples = 1\nvalue = [0, 1]"] ;
15 -> 17 ;
18 [label="gini = 0.0\nsamples = 29\nvalue = [29, 0]"] ;
14 -> 18 ;
19 [label="Online <= 0.5\ngini = 0.415\nsamples = 17\nvalue = [12, 5]"] ;
7 -> 19 ;
20 [label="Income <= 91.5\ngini = 0.494\nsamples = 9\nvalue = [4, 5]"] ;
19 -> 20 ;
21 [label="CCAvg <= 3.05\ngini = 0.408\nsamples = 7\nvalue = [2, 5]"] ;
20 -> 21 ;
22 [label="gini = 0.0\nsamples = 1\nvalue = [1, 0]"] ;
21 -> 22 ;
23 [label="Securities Account <= 0.5\ngini = 0.278\nsamples = 6\nvalue = [1, 5]"] ;
21 -> 23 ;
24 [label="gini = 0.0\nsamples = 5\nvalue = [0, 5]"] ;
23 -> 24 ;
25 [label="gini = 0.0\nsamples = 1\nvalue = [1, 0]"] ;
23 -> 25 ;
26 [label="gini = 0.0\nsamples = 2\nvalue = [2, 0]"] ;
20 -> 26 ;
27 [label="gini = 0.0\nsamples = 8\nvalue = [8, 0]"] ;
19 -> 27 ;
28 [label="Income <= 68.0\ngini = 0.444\nsamples = 3\nvalue = [1, 2]"] ;
6 -> 28 ;
29 [label="gini = 0.0\nsamples = 2\nvalue = [0, 2]"] ;
28 -> 29 ;
30 [label="gini = 0.0\nsamples = 1\nvalue = [1, 0]"] ;
28 -> 30 ;
31 [label="Income <= 81.5\ngini = 0.065\nsamples = 59\nvalue = [57, 2]"] ;
5 -> 31 ;
32 [label="gini = 0.0\nsamples = 33\nvalue = [33, 0]"] ;
31 -> 32 ;
33 [label="Income <= 83.5\ngini = 0.142\nsamples = 26\nvalue = [24, 2]"] ;
31 -> 33 ;
34 [label="Age <= 45.0\ngini = 0.346\nsamples = 9\nvalue = [7, 2]"] ;
33 -> 34 ;
35 [label="gini = 0.0\nsamples = 4\nvalue = [4, 0]"] ;
34 -> 35 ;
36 [label="Age <= 54.5\ngini = 0.48\nsamples = 5\nvalue = [3, 2]"] ;
34 -> 36 ;
37 [label="gini = 0.0\nsamples = 2\nvalue = [0, 2]"] ;
36 -> 37 ;
38 [label="gini = 0.0\nsamples = 3\nvalue = [3, 0]"] ;
36 -> 38 ;
39 [label="gini = 0.0\nsamples = 17\nvalue = [17, 0]"] ;
33 -> 39 ;
40 [label="Mortgage <= 168.0\ngini = 0.375\nsamples = 4\nvalue = [1, 3]"] ;
4 -> 40 ;
41 [label="gini = 0.0\nsamples = 3\nvalue = [0, 3]"] ;
40 -> 41 ;
42 [label="gini = 0.0\nsamples = 1\nvalue = [1, 0]"] ;
40 -> 42 ;
43 [label="Family <= 2.5\ngini = 0.499\nsamples = 46\nvalue = [24, 22]"] ;
3 -> 43 ;
44 [label="Age <= 60.0\ngini = 0.391\nsamples = 30\nvalue = [22, 8]"] ;
43 -> 44 ;
45 [label="Experience <= 8.5\ngini = 0.337\nsamples = 28\nvalue = [22, 6]"] ;
44 -> 45 ;
46 [label="CreditCard <= 0.5\ngini = 0.5\nsamples = 10\nvalue = [5, 5]"] ;
45 -> 46 ;
47 [label="Income <= 93.5\ngini = 0.408\nsamples = 7\nvalue = [5, 2]"] ;
46 -> 47 ;
48 [label="gini = 0.0\nsamples = 1\nvalue = [0, 1]"] ;
47 -> 48 ;
49 [label="Securities Account <= 0.5\ngini = 0.278\nsamples = 6\nvalue = [5, 1]"] ;
47 -> 49 ;
50 [label="gini = 0.0\nsamples = 5\nvalue = [5, 0]"] ;
49 -> 50 ;
51 [label="gini = 0.0\nsamples = 1\nvalue = [0, 1]"] ;
49 -> 51 ;
52 [label="gini = 0.0\nsamples = 3\nvalue = [0, 3]"] ;
46 -> 52 ;
53 [label="CCAvg <= 3.95\ngini = 0.105\nsamples = 18\nvalue = [17, 1]"] ;
45 -> 53 ;
54 [label="Family <= 1.5\ngini = 0.375\nsamples = 4\nvalue = [3, 1]"] ;
53 -> 54 ;
55 [label="gini = 0.0\nsamples = 3\nvalue = [3, 0]"] ;
54 -> 55 ;
56 [label="gini = 0.0\nsamples = 1\nvalue = [0, 1]"] ;
54 -> 56 ;
57 [label="gini = 0.0\nsamples = 14\nvalue = [14, 0]"] ;
53 -> 57 ;
58 [label="gini = 0.0\nsamples = 2\nvalue = [0, 2]"] ;
44 -> 58 ;
59 [label="Education <= 1.5\ngini = 0.219\nsamples = 16\nvalue = [2, 14]"] ;
43 -> 59 ;
60 [label="Mortgage <= 60.0\ngini = 0.444\nsamples = 3\nvalue = [2, 1]"] ;
59 -> 60 ;
61 [label="gini = 0.0\nsamples = 2\nvalue = [2, 0]"] ;
60 -> 61 ;
62 [label="gini = 0.0\nsamples = 1\nvalue = [0, 1]"] ;
60 -> 62 ;
63 [label="gini = 0.0\nsamples = 13\nvalue = [0, 13]"] ;
59 -> 63 ;
64 [label="Education <= 1.5\ngini = 0.465\nsamples = 777\nvalue = [492, 285]"] ;
0 -> 64 [labeldistance=2.5, labelangle=-45, headlabel="False"] ;
65 [label="Family <= 2.5\ngini = 0.177\nsamples = 490\nvalue = [442, 48]"] ;
64 -> 65 ;
66 [label="gini = 0.0\nsamples = 434\nvalue = [434, 0]"] ;
65 -> 66 ;
67 [label="Income <= 113.5\ngini = 0.245\nsamples = 56\nvalue = [8, 48]"] ;
65 -> 67 ;
68 [label="Family <= 3.5\ngini = 0.473\nsamples = 13\nvalue = [8, 5]"] ;
67 -> 68 ;
69 [label="CD Account <= 0.5\ngini = 0.198\nsamples = 9\nvalue = [8, 1]"] ;
68 -> 69 ;
70 [label="gini = 0.0\nsamples = 8\nvalue = [8, 0]"] ;
69 -> 70 ;
71 [label="gini = 0.0\nsamples = 1\nvalue = [0, 1]"] ;
69 -> 71 ;
72 [label="gini = 0.0\nsamples = 4\nvalue = [0, 4]"] ;
68 -> 72 ;
73 [label="gini = 0.0\nsamples = 43\nvalue = [0, 43]"] ;
67 -> 73 ;
74 [label="Income <= 116.5\ngini = 0.288\nsamples = 287\nvalue = [50, 237]"] ;
64 -> 74 ;
75 [label="CCAvg <= 2.725\ngini = 0.444\nsamples = 75\nvalue = [50, 25]"] ;
74 -> 75 ;
76 [label="CCAvg <= 1.25\ngini = 0.249\nsamples = 55\nvalue = [47, 8]"] ;
75 -> 76 ;
77 [label="Mortgage <= 125.5\ngini = 0.401\nsamples = 18\nvalue = [13, 5]"] ;
76 -> 77 ;
78 [label="CCAvg <= 1.05\ngini = 0.305\nsamples = 16\nvalue = [13, 3]"] ;
77 -> 78 ;
79 [label="Age <= 36.5\ngini = 0.153\nsamples = 12\nvalue = [11, 1]"] ;
78 -> 79 ;
80 [label="gini = 0.0\nsamples = 1\nvalue = [0, 1]"] ;
79 -> 80 ;
81 [label="gini = 0.0\nsamples = 11\nvalue = [11, 0]"] ;
79 -> 81 ;
82 [label="Income <= 109.5\ngini = 0.5\nsamples = 4\nvalue = [2, 2]"] ;
78 -> 82 ;
83 [label="gini = 0.0\nsamples = 2\nvalue = [2, 0]"] ;
82 -> 83 ;
84 [label="gini = 0.0\nsamples = 2\nvalue = [0, 2]"] ;
82 -> 84 ;
85 [label="gini = 0.0\nsamples = 2\nvalue = [0, 2]"] ;
77 -> 85 ;
86 [label="CCAvg <= 2.45\ngini = 0.149\nsamples = 37\nvalue = [34, 3]"] ;
76 -> 86 ;
87 [label="Education <= 2.5\ngini = 0.111\nsamples = 34\nvalue = [32, 2]"] ;
86 -> 87 ;
88 [label="Family <= 3.5\ngini = 0.245\nsamples = 14\nvalue = [12, 2]"] ;
87 -> 88 ;
89 [label="gini = 0.0\nsamples = 8\nvalue = [8, 0]"] ;
88 -> 89 ;
90 [label="Experience <= 9.5\ngini = 0.444\nsamples = 6\nvalue = [4, 2]"] ;
88 -> 90 ;
91 [label="gini = 0.0\nsamples = 3\nvalue = [3, 0]"] ;
90 -> 91 ;
92 [label="Income <= 106.5\ngini = 0.444\nsamples = 3\nvalue = [1, 2]"] ;
90 -> 92 ;
93 [label="gini = 0.0\nsamples = 1\nvalue = [1, 0]"] ;
92 -> 93 ;
94 [label="gini = 0.0\nsamples = 2\nvalue = [0, 2]"] ;
92 -> 94 ;
95 [label="gini = 0.0\nsamples = 20\nvalue = [20, 0]"] ;
87 -> 95 ;
96 [label="Education <= 2.5\ngini = 0.444\nsamples = 3\nvalue = [2, 1]"] ;
86 -> 96 ;
97 [label="gini = 0.0\nsamples = 2\nvalue = [2, 0]"] ;
96 -> 97 ;
98 [label="gini = 0.0\nsamples = 1\nvalue = [0, 1]"] ;
96 -> 98 ;
99 [label="Age <= 47.0\ngini = 0.255\nsamples = 20\nvalue = [3, 17]"] ;
75 -> 99 ;
100 [label="gini = 0.0\nsamples = 10\nvalue = [0, 10]"] ;
99 -> 100 ;
101 [label="Mortgage <= 43.0\ngini = 0.42\nsamples = 10\nvalue = [3, 7]"] ;
99 -> 101 ;
102 [label="CCAvg <= 3.95\ngini = 0.48\nsamples = 5\nvalue = [3, 2]"] ;
101 -> 102 ;
103 [label="gini = 0.0\nsamples = 3\nvalue = [3, 0]"] ;
102 -> 103 ;
104 [label="gini = 0.0\nsamples = 2\nvalue = [0, 2]"] ;
102 -> 104 ;
105 [label="gini = 0.0\nsamples = 5\nvalue = [0, 5]"] ;
101 -> 105 ;
106 [label="gini = 0.0\nsamples = 212\nvalue = [0, 212]"] ;
74 -> 106 ;
}